<?xml version="1.0" encoding="UTF-8"?>
<BIF VERSION="0.3"  xmlns="http://www.cs.ubc.ca/labs/lci/fopi/ve/XMLBIFv0_3"
	xmlns:xsi="http://www.w3.org/2001/XMLSchema-instance"
	xsi:schemaLocation="http://www.cs.ubc.ca/labs/lci/fopi/ve/XMLBIFv0_3 http://www.cs.ubc.ca/labs/lci/fopi/ve/XMLBIFv0_3/XMLBIFv0_3.xsd">
<NETWORK>
<NAME>jeffery_prozon_three</NAME>
<PROPERTY>short = </PROPERTY>
<PROPERTY>detailed = </PROPERTY>

<VARIABLE TYPE="nature">
	<NAME>Blocks(Teams0,MatchComp0)</NAME>
	<OUTCOME>1</OUTCOME>
	<OUTCOME>2</OUTCOME>
	<OUTCOME>3</OUTCOME>
	<OUTCOME>4</OUTCOME>
	<PROPERTY>position = (8351.8046875, 5055.92236328125)</PROPERTY>
</VARIABLE>

<VARIABLE TYPE="nature">
	<NAME>Clearances(Teams0,MatchComp0)</NAME>
	<OUTCOME>1</OUTCOME>
	<OUTCOME>2</OUTCOME>
	<OUTCOME>3</OUTCOME>
	<OUTCOME>4</OUTCOME>
	<PROPERTY>position = (8236.4169921875, 5171.30810546875)</PROPERTY>
</VARIABLE>

<VARIABLE TYPE="nature">
	<NAME>FreeKicksTaken(Teams0,MatchComp0)</NAME>
	<OUTCOME>1</OUTCOME>
	<OUTCOME>2</OUTCOME>
	<OUTCOME>3</OUTCOME>
	<OUTCOME>4</OUTCOME>
	<PROPERTY>position = (8351.8046875, 5402.076171875)</PROPERTY>
</VARIABLE>

<VARIABLE TYPE="nature">
	<NAME>Passes(Teams0,MatchComp0)</NAME>
	<OUTCOME>1</OUTCOME>
	<OUTCOME>2</OUTCOME>
	<OUTCOME>3</OUTCOME>
	<OUTCOME>4</OUTCOME>
	<PROPERTY>position = (7608.70654296875, 5602.1064453125)</PROPERTY>
</VARIABLE>

<VARIABLE TYPE="nature">
	<NAME>PassesRecv(Teams0,MatchComp0)</NAME>
	<OUTCOME>1</OUTCOME>
	<OUTCOME>2</OUTCOME>
	<OUTCOME>3</OUTCOME>
	<OUTCOME>4</OUTCOME>
	<PROPERTY>position = (8351.8046875, 5632.84716796875)</PROPERTY>
</VARIABLE>

<VARIABLE TYPE="nature">
	<NAME>RedCards(Teams0,MatchComp0)</NAME>
	<OUTCOME>0</OUTCOME>
	<OUTCOME>1</OUTCOME>
	<OUTCOME>2</OUTCOME>
	<PROPERTY>position = (8706.1875, 5590.84716796875)</PROPERTY>
</VARIABLE>

<VARIABLE TYPE="nature">
	<NAME>Shots(Teams0,MatchComp0)</NAME>
	<OUTCOME>1</OUTCOME>
	<OUTCOME>2</OUTCOME>
	<OUTCOME>3</OUTCOME>
	<OUTCOME>4</OUTCOME>
	<PROPERTY>position = (8351.8046875, 5748.23388671875)</PROPERTY>
</VARIABLE>

<VARIABLE TYPE="nature">
	<NAME>ShotsOnTarget(Teams0,MatchComp0)</NAME>
	<OUTCOME>1</OUTCOME>
	<OUTCOME>2</OUTCOME>
	<OUTCOME>3</OUTCOME>
	<OUTCOME>4</OUTCOME>
	<PROPERTY>position = (8876.1875, 5713.23388671875)</PROPERTY>
</VARIABLE>

<VARIABLE TYPE="nature">
	<NAME>SuccPassesPct(Teams0,MatchComp0)</NAME>
	<OUTCOME>1</OUTCOME>
	<OUTCOME>2</OUTCOME>
	<OUTCOME>3</OUTCOME>
	<OUTCOME>4</OUTCOME>
	<PROPERTY>position = (8236.4169921875, 5863.61865234375)</PROPERTY>
</VARIABLE>

<VARIABLE TYPE="nature">
	<NAME>Tackled(Teams0,MatchComp0)</NAME>
	<OUTCOME>1</OUTCOME>
	<OUTCOME>2</OUTCOME>
	<OUTCOME>3</OUTCOME>
	<OUTCOME>4</OUTCOME>
	<PROPERTY>position = (8650.8046875, 5906.61865234375)</PROPERTY>
</VARIABLE>

<VARIABLE TYPE="nature">
	<NAME>Tackles(Teams0,MatchComp0)</NAME>
	<OUTCOME>1</OUTCOME>
	<OUTCOME>2</OUTCOME>
	<OUTCOME>3</OUTCOME>
	<OUTCOME>4</OUTCOME>
	<PROPERTY>position = (8819.1875, 5840.61865234375)</PROPERTY>
</VARIABLE>

<VARIABLE TYPE="nature">
	<NAME>YellowCards(Teams0,MatchComp0)</NAME>
	<OUTCOME>1</OUTCOME>
	<OUTCOME>2</OUTCOME>
	<OUTCOME>3</OUTCOME>
	<OUTCOME>4</OUTCOME>
	<PROPERTY>position = (8236.4169921875, 5979.0029296875)</PROPERTY>
</VARIABLE>

<VARIABLE TYPE="nature">
	<NAME>Crosses(Teams0,MatchComp0)</NAME>
	<OUTCOME>1</OUTCOME>
	<OUTCOME>2</OUTCOME>
	<OUTCOME>3</OUTCOME>
	<OUTCOME>4</OUTCOME>
	<PROPERTY>position = (8783.521484375, 5188.166015625)</PROPERTY>
</VARIABLE>

<VARIABLE TYPE="nature">
	<NAME>CornersTaken(Teams0,MatchComp0)</NAME>
	<OUTCOME>1</OUTCOME>
	<OUTCOME>2</OUTCOME>
	<OUTCOME>3</OUTCOME>
	<OUTCOME>4</OUTCOME>
	<PROPERTY>position = (8524.349609375, 5159.40771484375)</PROPERTY>
</VARIABLE>

<VARIABLE TYPE="nature">
	<NAME>Fouled(Teams0,MatchComp0)</NAME>
	<OUTCOME>1</OUTCOME>
	<OUTCOME>2</OUTCOME>
	<OUTCOME>3</OUTCOME>
	<OUTCOME>4</OUTCOME>
	<PROPERTY>position = (8823.189453125, 5281.73388671875)</PROPERTY>
</VARIABLE>

<VARIABLE TYPE="nature">
	<NAME>Dribbles(Teams0,MatchComp0)</NAME>
	<OUTCOME>1</OUTCOME>
	<OUTCOME>2</OUTCOME>
	<OUTCOME>3</OUTCOME>
	<OUTCOME>4</OUTCOME>
	<PROPERTY>position = (8516.416015625, 5246.03466796875)</PROPERTY>
</VARIABLE>

<VARIABLE TYPE="nature">
	<NAME>Goals(Teams0,MatchComp0)</NAME>
	<OUTCOME>1</OUTCOME>
	<OUTCOME>2</OUTCOME>
	<OUTCOME>3</OUTCOME>
	<OUTCOME>4</OUTCOME>
	<PROPERTY>position = (8929.29296875, 5438.7666015625)</PROPERTY>
</VARIABLE>

<VARIABLE TYPE="nature">
	<NAME>OwnGoals(Teams0,MatchComp0)</NAME>
	<OUTCOME>0</OUTCOME>
	<OUTCOME>1</OUTCOME>
	<PROPERTY>position = (8680.390625, 5428.21435546875)</PROPERTY>
</VARIABLE>

<VARIABLE TYPE="nature">
	<NAME>Interceptions(Teams0,MatchComp0)</NAME>
	<OUTCOME>1</OUTCOME>
	<OUTCOME>2</OUTCOME>
	<OUTCOME>3</OUTCOME>
	<OUTCOME>4</OUTCOME>
	<PROPERTY>position = (7952.806640625, 5486.7216796875)</PROPERTY>
</VARIABLE>

<VARIABLE TYPE="nature">
	<NAME>Fouls(Teams0,MatchComp0)</NAME>
	<OUTCOME>1</OUTCOME>
	<OUTCOME>2</OUTCOME>
	<OUTCOME>3</OUTCOME>
	<OUTCOME>4</OUTCOME>
	<PROPERTY>position = (8155.4169921875, 5380.076171875)</PROPERTY>
</VARIABLE>

<VARIABLE TYPE="nature">
	<NAME>Offsides(Teams0,MatchComp0)</NAME>
	<OUTCOME>1</OUTCOME>
	<OUTCOME>2</OUTCOME>
	<OUTCOME>3</OUTCOME>
	<OUTCOME>4</OUTCOME>
	<PROPERTY>position = (8304.8046875, 5475.462890625)</PROPERTY>
</VARIABLE>

<VARIABLE TYPE="nature">
	<NAME>Result(Teams0,MatchComp0)</NAME>
	<OUTCOME>-1</OUTCOME>
	<OUTCOME>0</OUTCOME>
	<OUTCOME>1</OUTCOME>
	<PROPERTY>position = (7861.4169921875, 5742.23388671875)</PROPERTY>
</VARIABLE>

<DEFINITION>
	<FOR>Blocks(Teams0,MatchComp0)</FOR>
	<TABLE>0.394481 0.574675 0.027597 0.003247</TABLE>
</DEFINITION>

<DEFINITION>
	<FOR>Clearances(Teams0,MatchComp0)</FOR>
	<GIVEN>Passes(Teams0,MatchComp0)</GIVEN>
	<GIVEN>Interceptions(Teams0,MatchComp0)</GIVEN>
	<TABLE>0.390805 0.54023 0.057471 0.011494 0.103093 0.72165 0.164948 0.010309 0.142857 0.428571 0.214286 0.214286 0.25 0.25 0.25 0.25 0.54 0.44 0.013333 0.006667 0.255605 0.677131 0.06278 0.004484 0.142857 0.428571 0.357143 0.071429 0.2 0.4 0.2 0.2 0.741936 0.193548 0.032258 0.032258 0.56 0.36 0.04 0.04 0.4 0.2 0.2 0.2 0.25 0.25 0.25 0.25 0.25 0.25 0.25 0.25 0.2 0.4 0.2 0.2 0.25 0.25 0.25 0.25 0.25 0.25 0.25 0.25</TABLE>
</DEFINITION>

<DEFINITION>
	<FOR>FreeKicksTaken(Teams0,MatchComp0)</FOR>
	<TABLE>0.336039 0.616883 0.043831 0.003247</TABLE>
</DEFINITION>

<DEFINITION>
	<FOR>Passes(Teams0,MatchComp0)</FOR>
	<GIVEN>PassesRecv(Teams0,MatchComp0)</GIVEN>
	<TABLE>0.891626 0.098522 0.004926 0.004926 0.019074 0.961852 0.016349 0.002725 0.018868 0.113208 0.830188 0.037736 0.2 0.2 0.4 0.2</TABLE>
</DEFINITION>

<DEFINITION>
	<FOR>PassesRecv(Teams0,MatchComp0)</FOR>
	<GIVEN>Blocks(Teams0,MatchComp0)</GIVEN>
	<TABLE>0.227642 0.613821 0.154472 0.004065 0.383754 0.574229 0.036415 0.005602 0.4 0.5 0.05 0.05 0.4 0.2 0.2 0.2</TABLE>
</DEFINITION>

<DEFINITION>
	<FOR>RedCards(Teams0,MatchComp0)</FOR>
	<TABLE>0.861789 0.130081 0.00813</TABLE>
</DEFINITION>

<DEFINITION>
	<FOR>Shots(Teams0,MatchComp0)</FOR>
	<GIVEN>ShotsOnTarget(Teams0,MatchComp0)</GIVEN>
	<TABLE>0.740457 0.248092 0.007634 0.003817 0.166144 0.752351 0.07837 0.003135 0.02381 0.333333 0.571428 0.071429 0.2 0.2 0.4 0.2</TABLE>
</DEFINITION>

<DEFINITION>
	<FOR>ShotsOnTarget(Teams0,MatchComp0)</FOR>
	<GIVEN>Goals(Teams0,MatchComp0)</GIVEN>
	<TABLE>0.52 0.4375 0.04 0.0025 0.262887 0.639174 0.092784 0.005155 0.068966 0.620689 0.241379 0.068966 0.2 0.4 0.2 0.2</TABLE>
</DEFINITION>

<DEFINITION>
	<FOR>SuccPassesPct(Teams0,MatchComp0)</FOR>
	<GIVEN>PassesRecv(Teams0,MatchComp0)</GIVEN>
	<TABLE>0.211823 0.763547 0.019704 0.004926 0.00545 0.59128 0.400545 0.002725 0.018868 0.037736 0.90566 0.037736 0.2 0.2 0.4 0.2</TABLE>
</DEFINITION>

<DEFINITION>
	<FOR>Tackled(Teams0,MatchComp0)</FOR>
	<GIVEN>Tackles(Teams0,MatchComp0)</GIVEN>
	<TABLE>0.518717 0.454545 0.02139 0.005348 0.211055 0.721106 0.062814 0.005025 0.105263 0.68421 0.184211 0.026316 0.2 0.4 0.2 0.2</TABLE>
</DEFINITION>

<DEFINITION>
	<FOR>Tackles(Teams0,MatchComp0)</FOR>
	<GIVEN>Offsides(Teams0,MatchComp0)</GIVEN>
	<TABLE>0.295749 0.648799 0.053604 0.001848 0.302632 0.592105 0.092105 0.013158 0.499999 0.166667 0.166667 0.166667 0.2 0.2 0.2 0.4</TABLE>
</DEFINITION>

<DEFINITION>
	<FOR>YellowCards(Teams0,MatchComp0)</FOR>
	<GIVEN>RedCards(Teams0,MatchComp0)</GIVEN>
	<TABLE>0.54409 0.407129 0.0394 0.009381 0.301205 0.445783 0.204819 0.048193 0.25 0.25 0.375 0.125</TABLE>
</DEFINITION>

<DEFINITION>
	<FOR>Crosses(Teams0,MatchComp0)</FOR>
	<TABLE>0.590909 0.366883 0.035714 0.006494</TABLE>
</DEFINITION>

<DEFINITION>
	<FOR>CornersTaken(Teams0,MatchComp0)</FOR>
	<TABLE>0.535714 0.407468 0.053571 0.003247</TABLE>
</DEFINITION>

<DEFINITION>
	<FOR>Fouled(Teams0,MatchComp0)</FOR>
	<GIVEN>FreeKicksTaken(Teams0,MatchComp0)</GIVEN>
	<TABLE>0.514286 0.47619 0.004762 0.004762 0.075718 0.793734 0.127937 0.002611 0.033333 0.2 0.633334 0.133333 0.2 0.2 0.4 0.2</TABLE>
</DEFINITION>

<DEFINITION>
	<FOR>Dribbles(Teams0,MatchComp0)</FOR>
	<GIVEN>Shots(Teams0,MatchComp0)</GIVEN>
	<TABLE>0.859438 0.128514 0.008032 0.004016 0.690625 0.278125 0.028125 0.003125 0.301887 0.566037 0.09434 0.037736 0.166667 0.499999 0.166667 0.166667</TABLE>
</DEFINITION>

<DEFINITION>
	<FOR>Goals(Teams0,MatchComp0)</FOR>
	<GIVEN>Result(Teams0,MatchComp0)</GIVEN>
	<TABLE>0.872549 0.117647 0.004902 0.004902 0.722222 0.259259 0.013889 0.00463 0.318627 0.553922 0.117647 0.009804</TABLE>
</DEFINITION>

<DEFINITION>
	<FOR>OwnGoals(Teams0,MatchComp0)</FOR>
	<GIVEN>Result(Teams0,MatchComp0)</GIVEN>
	<TABLE>0.930693 0.069307 0.985981 0.014019 0.975248 0.024752</TABLE>
</DEFINITION>

<DEFINITION>
	<FOR>Interceptions(Teams0,MatchComp0)</FOR>
	<GIVEN>Passes(Teams0,MatchComp0)</GIVEN>
	<GIVEN>SuccPassesPct(Teams0,MatchComp0)</GIVEN>
	<TABLE>0.232558 0.604651 0.139535 0.023256 0.475862 0.475862 0.041379 0.006897 0.7 0.1 0.1 0.1 0.25 0.25 0.25 0.25 0.125 0.625 0.125 0.125 0.238095 0.705628 0.047619 0.008658 0.624162 0.362416 0.006711 0.006711 0.25 0.25 0.25 0.25 0.25 0.25 0.25 0.25 0.142857 0.428572 0.285714 0.142857 0.551021 0.408163 0.020408 0.020408 0.4 0.2 0.2 0.2 0.25 0.25 0.25 0.25 0.25 0.25 0.25 0.25 0.2 0.4 0.2 0.2 0.25 0.25 0.25 0.25</TABLE>
</DEFINITION>

<DEFINITION>
	<FOR>Fouls(Teams0,MatchComp0)</FOR>
	<GIVEN>YellowCards(Teams0,MatchComp0)</GIVEN>
	<TABLE>0.399371 0.562893 0.034591 0.003145 0.237354 0.673152 0.081712 0.007782 0.095238 0.595238 0.285714 0.02381 0.090909 0.363636 0.454546 0.090909</TABLE>
</DEFINITION>

<DEFINITION>
	<FOR>Offsides(Teams0,MatchComp0)</FOR>
	<TABLE>0.873377 0.118506 0.00487 0.003247</TABLE>
</DEFINITION>

<DEFINITION>
	<FOR>Result(Teams0,MatchComp0)</FOR>
	<TABLE>0.326829 0.346342 0.326829</TABLE>
</DEFINITION>
</NETWORK>
</BIF>
